{"learner":{"attributes":{"scikit_learn":"{\"_estimator_type\": \"regressor\"}"},"feature_names":["CRIM","ZN","INDUS","CHAS","NOX","RM","AGE","DIS","RAD","TAX","PTRATIO","B","LSTAT"],"feature_types":["float","float","float","int","float","float","float","float","int","float","float","float","float"],"gradient_booster":{"model":{"gbtree_model_param":{"num_parallel_tree":"1","num_trees":"10"},"iteration_indptr":[0,1,2,3,4,5,6,7,8,9,10],"tree_info":[0,0,0,0,0,0,0,0,0,0],"trees":[{"base_weights":[-0E0,-2.8119304E0,1.3976943E1,2.0670988E-1,-5.333651E0,9.064356E0,2.0314054E1,-2.0938432E0,2.4009526E0,-5.982532E0,-4.016445E-2,9.318761E-1,-0E0,2.1099632E0,-0E0,-2.2809646E0,-0E0,7.7006334E-1,4.6839976E0,-4.184739E0,-7.3381476E0,-6.552476E0,3.2032335E0,1.6017322E-1,-0E0,-0E0,-2.3514302E-1,-0E0,9.757313E-2,4.903345E-1,-0E0,-7.20918E-1,-2.5475442E-1,-7.427257E-1,-0E0,-7.959469E-1,-0E0,4.2122403E-1,-0E0],"categories":[],"categories_nodes":[],"categories_segments":[],"categories_sizes":[],"default_left":[0,0,0,0,0,0,0,0,0,0,0,0,0,0,0,0,0,0,0,0,0,0,0,0,0,0,0,0,0,0,0,0,0,0,0,0,0,0,0],"id":0,"left_children":[1,3,5,7,9,11,13,15,17,19,21,-1,23,-1,-1,25,-1,27,29,31,33,35,37,-1,-1,-1,-1,-1,-1,-1,-1,-1,-1,-1,-1,-1,-1,-1,-1],"loss_changes":[1.5956686E4,2.6252847E3,1.6390312E3,7.80438E2,5.784136E2,1.806836E1,4.6574805E2,1.2934082E1,2.434473E2,2.5375E2,5.4028796E2,0E0,5.1310925E0,0E0,0E0,9.832672E0,0E0,1.450355E1,1.710608E1,2.6038855E2,6.1936523E1,1.20410645E2,4.126207E1,0E0,0E0,0E0,0E0,0E0,0E0,0E0,0E0,0E0,0E0,0E0,0E0,0E0,0E0,0E0,0E0],"parents":[2147483647,0,0,1,1,2,2,3,3,4,4,5,5,6,6,7,7,8,8,9,9,10,10,12,12,15,15,17,17,18,18,19,19,20,20,21,21,22,22],"right_children":[2,4,6,8,10,12,14,16,18,20,22,-1,24,-1,-1,26,-1,28,30,32,34,36,38,-1,-1,-1,-1,-1,-1,-1,-1,-1,-1,-1,-1,-1,-1,-1,-1],"split_conditions":[6.943E0,7.48E1,7.42E0,6.127E0,6.538E0,9.79E1,8.78E0,6.081E0,6.549E0,9.34E1,3.6431E2,9.318761E-1,7.358E0,2.1099632E0,-0E0,1.77E1,-0E0,3.728E2,6.897E0,3.3892E2,6.51E0,6.852E0,6.739E0,1.6017322E-1,-0E0,-0E0,-2.3514302E-1,-0E0,9.757313E-2,4.903345E-1,-0E0,-7.20918E-1,-2.5475442E-1,-7.427257E-1,-0E0,-7.959469E-1,-0E0,4.2122403E-1,-0E0],"split_indices":[5,6,5,5,5,6,5,5,5,6,11,0,5,0,0,6,0,11,5,11,5,5,5,0,0,0,0,0,0,0,0,0,0,0,0,0,0,0,0],"split_type":[0,0,0,0,0,0,0,0,0,0,0,0,0,0,0,0,0,0,0,0,0,0,0,0,0,0,0,0,0,0,0,0,0,0,0,0,0,0,0],"sum_hessian":[4.04E2,3.37E2,6.7E1,1.52E2,1.85E2,4E1,2.7E1,7.2E1,8E1,1.63E2,2.2E1,3.8E1,2E0,2.6E1,1E0,6.3E1,9E0,5E1,3E1,7.5E1,8.8E1,8E0,1.4E1,1E0,1E0,2E0,6.1E1,4E0,4.6E1,2.8E1,2E0,2.3E1,5.2E1,8.7E1,1E0,7E0,1E0,1E1,4E0],"tree_param":{"num_deleted":"0","num_feature":"13","num_nodes":"39","size_leaf_vector":"1"}},{"base_weights":[-0E0,5.3414516E0,-3.3618784E0,7.845636E0,2.5763724E0,-9.9050605E-1,-8.144595E0,8.407426E-2,8.451757E0,1.888744E-1,8.990673E0,-1.5850548E0,5.4967747E0,-1.1273499E0,-5.779206E0,6.605396E-1,-0E0,-0E0,8.715055E0,1.5355539E0,-8.3076763E-1,1.1676933E1,4.1367197E0,-5.0655025E-1,-9.062743E-1,1.4409242E1,-0E0,-8.1842434E-1,-4.112592E0,-0E0,1.3319546E-1,4.7859287E-1,9.5892394E-1,-0E0,2.455508E-1,9.7270474E-2,-1.530252E-1,1.761661E-1,1.3924953E0,-0E0,4.3872172E-1,-2.951442E-2,-4.54264E-1,-0E0,1.7750005E0,3.51348E-1,-3.6311078E-1,-0E0,-4.2318946E-1],"categories":[],"categories_nodes":[],"categories_segments":[],"categories_sizes":[],"default_left":[0,0,0,0,0,0,0,0,0,0,0,0,0,0,0,0,0,0,0,0,0,0,0,0,0,0,0,0,0,0,0,0,0,0,0,0,0,0,0,0,0,0,0,0,0,0,0,0,0],"id":1,"left_children":[1,3,5,7,9,11,13,15,17,19,21,23,25,-1,27,29,-1,-1,31,33,35,37,39,-1,41,43,45,-1,47,-1,-1,-1,-1,-1,-1,-1,-1,-1,-1,-1,-1,-1,-1,-1,-1,-1,-1,-1,-1],"loss_changes":[7.2936387E3,9.6267676E2,2.7246409E3,2.902871E2,1.1010085E3,6.214292E2,3.638081E2,2.5613277E0,1.7805469E2,8.933829E1,5.4338867E1,3.0659763E2,6.453423E2,0E0,4.37865E1,6.2526393E0,0E0,0E0,5.4223633E1,4.3823105E1,4.4908974E1,6.3789917E1,2.1045837E0,0E0,2.5029086E2,2.221195E2,1.2764742E2,0E0,1.593866E1,0E0,0E0,0E0,0E0,0E0,0E0,0E0,0E0,0E0,0E0,0E0,0E0,0E0,0E0,0E0,0E0,0E0,0E0,0E0,0E0],"parents":[2147483647,0,0,1,1,2,2,3,3,4,4,5,5,6,6,7,7,8,8,9,9,10,10,11,11,12,12,14,14,15,15,18,18,19,19,20,20,21,21,22,22,24,24,25,25,26,26,28,28],"right_children":[2,4,6,8,10,12,14,16,18,20,22,24,26,-1,28,30,-1,-1,32,34,36,38,40,-1,42,44,46,-1,48,-1,-1,-1,-1,-1,-1,-1,-1,-1,-1,-1,-1,-1,-1,-1,-1,-1,-1,-1,-1],"split_conditions":[6.91E0,4E0,6.71E-1,3.7533E2,6.2E0,6.31E-1,7.13E-1,2.93E0,3.94E-1,4.35E-1,3.8769E2,3.1875E2,6.47E-1,-1.1273499E0,3.1603E2,3.89E-1,-0E0,-0E0,2.03E0,4.95E0,4.15E0,3.7688E2,3.8852E2,-5.0655025E-1,6.09E-1,1.7291E2,3.4813E2,-8.1842434E-1,3.1801E2,-0E0,1.3319546E-1,4.7859287E-1,9.5892394E-1,-0E0,2.455508E-1,9.7270474E-2,-1.530252E-1,1.761661E-1,1.3924953E0,-0E0,4.3872172E-1,-2.951442E-2,-4.54264E-1,-0E0,1.7750005E0,3.51348E-1,-3.6311078E-1,-0E0,-4.2318946E-1],"split_indices":[2,2,4,11,2,4,4,2,4,4,11,11,4,0,11,4,0,0,2,2,2,11,11,0,4,11,11,0,11,0,0,0,0,0,0,0,0,0,0,0,0,0,0,0,0,0,0,0,0],"split_type":[0,0,0,0,0,0,0,0,0,0,0,0,0,0,0,0,0,0,0,0,0,0,0,0,0,0,0,0,0,0,0,0,0,0,0,0,0,0,0,0,0,0,0,0,0,0,0,0,0],"sum_hessian":[4.04E2,1.56E2,2.48E2,7.9E1,7.7E1,1.68E2,8E1,7E0,7.2E1,5.8E1,1.9E1,1.56E2,1.2E1,3.1E1,4.9E1,5E0,2E0,2E0,7E1,2.9E1,2.9E1,1E1,9E0,2.2E1,1.34E2,4E0,8E0,1.6E1,3.3E1,1E0,4E0,1.6E1,5.4E1,1.1E1,1.8E1,4E0,2.5E1,3E0,7E0,1E0,8E0,1.18E2,1.6E1,1E0,3E0,4E0,4E0,1E0,3.2E1],"tree_param":{"num_deleted":"0","num_feature":"13","num_nodes":"49","size_leaf_vector":"1"}},{"base_weights":[-0E0,7.9779825E0,-3.490458E0,1.4512215E1,4.5746307E0,-6.56595E-1,-6.9645367E0,1.1681633E1,2.0260928E0,1.6710267E0,5.6071577E0,1.096646E0,-1.7005262E-1,-3.2096183E0,-8.278009E0,1.2083963E0,-0E0,2.3280137E0,-0E0,6.200064E0,-0E0,-0E0,5.59299E-1,-0E0,-3.6957757E0,-6.1428504E0,-9.5942515E-1,-0E0,2.4857223E-1,4.7520915E-1,1.2319905E0,-5.1733404E-2,8.0067955E-2,-4.9206596E-2,-0E0,-3.9443406E-1,-0E0,-6.4339495E-1,-0E0],"categories":[],"categories_nodes":[],"categories_segments":[],"categories_sizes":[],"default_left":[0,0,0,0,0,0,0,0,0,0,0,0,0,0,0,0,0,0,0,0,0,0,0,0,0,0,0,0,0,0,0,0,0,0,0,0,0,0,0],"id":2,"left_children":[1,3,5,7,9,11,13,15,-1,17,19,21,-1,23,25,-1,-1,27,-1,29,-1,31,-1,33,35,37,-1,-1,-1,-1,-1,-1,-1,-1,-1,-1,-1,-1,-1],"loss_changes":[1.1328066E4,2.500291E3,2.6955244E3,1.1105469E2,1.6968457E2,2.970852E2,4.7505176E2,1.503872E2,0E0,2.4953087E1,1.4394885E2,2.4546793E2,0E0,2.524466E1,3.662793E1,0E0,0E0,7.486191E0,0E0,2.3152563E2,0E0,2.1435883E1,0E0,1.6949024E0,8.3993225E0,1.05048096E2,0E0,0E0,0E0,0E0,0E0,0E0,0E0,0E0,0E0,0E0,0E0,0E0,0E0],"parents":[2147483647,0,0,1,1,2,2,3,3,4,4,5,5,6,6,7,7,9,9,10,10,11,11,13,13,14,14,17,17,19,19,21,21,23,23,24,24,25,25],"right_children":[2,4,6,8,10,12,14,16,-1,18,20,22,-1,24,26,-1,-1,28,-1,30,-1,32,-1,34,36,38,-1,-1,-1,-1,-1,-1,-1,-1,-1,-1,-1,-1,-1],"split_conditions":[7.7E0,4.67E0,1.502E1,5.1183E-1,5.479E-2,9.97E0,5.7529E-1,4.0202E-1,2.0260928E0,6.68E0,6.6351E-1,5.2693E-1,-1.7005262E-1,1.4476E-1,1.988E1,1.2083963E0,-0E0,4.69E0,-0E0,4.9298E-1,-0E0,6.466E-2,5.59299E-1,1.415E-1,1E0,1.978E1,-9.5942515E-1,-0E0,2.4857223E-1,4.7520915E-1,1.2319905E0,-5.1733404E-2,8.0067955E-2,-4.9206596E-2,-0E0,-3.9443406E-1,-0E0,-6.4339495E-1,-0E0],"split_indices":[12,12,12,0,0,12,0,0,0,12,0,0,0,0,12,0,0,12,0,0,0,0,0,0,3,12,0,0,0,0,0,0,0,0,0,0,0,0,0],"split_type":[0,0,0,0,0,0,0,0,0,0,0,0,0,0,0,0,0,0,0,0,0,0,0,0,0,0,0,0,0,0,0,0,0,0,0,0,0,0,0],"sum_hessian":[4.04E2,1.23E2,2.81E2,4E1,8.3E1,1.57E2,1.24E2,3E1,1E1,2.5E1,5.8E1,5.5E1,1.02E2,3.5E1,8.9E1,2.9E1,1E0,1.7E1,8E0,5.1E1,7E0,4.6E1,9E0,7E0,2.8E1,3.9E1,5E1,1E0,1.6E1,4.4E1,7E0,2.4E1,2.2E1,6E0,1E0,2.5E1,3E0,3.8E1,1E0],"tree_param":{"num_deleted":"0","num_feature":"13","num_nodes":"39","size_leaf_vector":"1"}},{"base_weights":[1.2695501E-3,-2.0785294E0,1.1927979E1,1.0485736E-1,-3.9128966E0,7.8569856E0,1.6721357E1,-8.384338E-1,3.8083856E0,-4.5349956E0,-0E0,8.095776E-1,-0E0,1.7409146E0,-0E0,-1.9462737E0,1.9056927E-1,1.5527847E0,4.981082E0,-3.2316573E0,-5.590667E0,-1.6647081E0,4.197883E0,7.6253414E-2,-0E0,-0E0,-1.998237E-1,-0E0,3.68764E-2,-0E0,1.6239057E-1,5.5575466E-1,-0E0,-3.9734545E-1,-1.0407653E-1,-0E0,-5.6717014E-1,7.096946E-2,-6.565024E-1,9.1010666E-1,-0E0],"categories":[],"categories_nodes":[],"categories_segments":[],"categories_sizes":[],"default_left":[0,0,0,0,0,0,0,0,0,0,0,0,0,0,0,0,0,0,0,0,0,0,0,0,0,0,0,0,0,0,0,0,0,0,0,0,0,0,0,0,0],"id":3,"left_children":[1,3,5,7,9,11,13,15,17,19,21,-1,23,-1,-1,25,27,29,31,33,35,37,39,-1,-1,-1,-1,-1,-1,-1,-1,-1,-1,-1,-1,-1,-1,-1,-1,-1,-1],"loss_changes":[1.0169376E4,1.4202617E3,8.131797E2,5.7787946E2,4.6380957E2,6.053467E0,3.0726025E2,1.5814433E2,1.686142E1,1.1935693E2,1.9640285E2,0E0,1.1629167E0,0E0,0E0,9.125122E0,5.436267E0,9.778061E-1,2.276889E1,7.573822E1,4.540625E1,2.9591895E2,1.9033987E2,0E0,0E0,0E0,0E0,0E0,0E0,0E0,0E0,0E0,0E0,0E0,0E0,0E0,0E0,0E0,0E0,0E0,0E0],"parents":[2147483647,0,0,1,1,2,2,3,3,4,4,5,5,6,6,7,7,8,8,9,9,10,10,12,12,15,15,16,16,17,17,18,18,19,19,20,20,21,21,22,22],"right_children":[2,4,6,8,10,12,14,16,18,20,22,-1,24,-1,-1,26,28,30,32,34,36,38,40,-1,-1,-1,-1,-1,-1,-1,-1,-1,-1,-1,-1,-1,-1,-1,-1,-1,-1],"split_conditions":[6.98E0,7.48E1,7.489E0,6.549E0,6.538E0,9.79E1,8.78E0,6.081E0,6.727E0,9.39E1,9.47E1,8.095776E-1,4E0,1.7409146E0,-0E0,9.9E0,1.91E0,2.02E0,4.37E1,8.96E1,4.138E0,1.392E1,9.75E1,7.6253414E-2,-0E0,-0E0,-1.998237E-1,-0E0,3.68764E-2,-0E0,1.6239057E-1,5.5575466E-1,-0E0,-3.9734545E-1,-1.0407653E-1,-0E0,-5.6717014E-1,7.096946E-2,-6.565024E-1,9.1010666E-1,-0E0],"split_indices":[5,6,5,5,5,6,5,5,5,6,6,0,2,0,0,6,2,2,6,6,5,2,6,0,0,0,0,0,0,0,0,0,0,0,0,0,0,0,0,0,0],"split_type":[0,0,0,0,0,0,0,0,0,0,0,0,0,0,0,0,0,0,0,0,0,0,0,0,0,0,0,0,0,0,0,0,0,0,0,0,0,0,0,0,0],"sum_hessian":[4.04E2,3.44E2,6E1,1.55E2,1.89E2,3.5E1,2.5E1,1.22E2,3.3E1,1.63E2,2.6E1,3.3E1,2E0,2.4E1,1E0,6.3E1,5.9E1,1.5E1,1.8E1,7.9E1,8.4E1,1.9E1,7E0,1E0,1E0,1E0,6.2E1,4E0,5.5E1,1E0,1.4E1,1.5E1,3E0,5.5E1,2.4E1,1E0,8.3E1,1.2E1,7E0,3E0,4E0],"tree_param":{"num_deleted":"0","num_feature":"13","num_nodes":"41","size_leaf_vector":"1"}},{"base_weights":[1.02010425E-2,-1.9963727E0,1.0130962E1,3.9767793E-1,-5.6733356E0,6.4284315E0,1.4833562E1,4.6053944E0,-2.1369909E-1,-3.8287733E0,-7.814996E0,7.13838E-1,-1.6103725E-1,1.5400485E0,-0E0,3.1602972E0,1.2261103E0,-6.3763595E-1,1.7078804E0,-0E0,-4.1361228E-1,-8.039565E-1,-0E0,-0E0,3.7828743E-1,-8.584272E-2,2.566876E-1,2.0330182E-1,-0E0,-6.3324384E-2,-0E0],"categories":[],"categories_nodes":[],"categories_segments":[],"categories_sizes":[],"default_left":[0,0,0,0,0,0,0,0,0,0,0,0,0,0,0,0,0,0,0,0,0,0,0,0,0,0,0,0,0,0,0],"id":4,"left_children":[1,3,5,7,9,11,13,15,17,19,21,-1,-1,-1,-1,23,-1,25,27,29,-1,-1,-1,-1,-1,-1,-1,-1,-1,-1,-1],"loss_changes":[8.326333E3,3.030371E3,8.760073E2,5.696913E2,3.8694775E2,3.007682E2,2.4275488E2,1.16808044E2,1.3457578E2,5.1636353E1,1.4543164E2,0E0,0E0,0E0,0E0,4.08385E1,0E0,9.1248245E1,2.165712E1,3.2079816E0,0E0,0E0,0E0,0E0,0E0,0E0,0E0,0E0,0E0,0E0,0E0],"parents":[2147483647,0,0,1,1,2,2,3,3,4,4,5,5,6,6,7,7,8,8,9,9,10,10,15,15,17,17,18,18,19,19],"right_children":[2,4,6,8,10,12,14,16,18,20,22,-1,-1,-1,-1,24,-1,26,28,30,-1,-1,-1,-1,-1,-1,-1,-1,-1,-1,-1],"split_conditions":[6.943E0,1.443E1,7.42E0,5.7E0,7.05042E0,6.71772E0,2.24236E0,1.35472E0,6.549E0,1.4476E-1,6.852E0,7.13838E-1,-1.6103725E-1,1.5400485E0,-0E0,6.395E0,1.2261103E0,7.99248E0,9.97E0,1.415E-1,-4.1361228E-1,-8.039565E-1,-0E0,-0E0,3.7828743E-1,-8.584272E-2,2.566876E-1,2.0330182E-1,-0E0,-6.3324384E-2,-0E0],"split_indices":[5,12,5,12,0,0,0,0,5,0,5,0,0,0,0,5,0,0,12,0,0,0,0,0,0,0,0,0,0,0,0],"split_type":[0,0,0,0,0,0,0,0,0,0,0,0,0,0,0,0,0,0,0,0,0,0,0,0,0,0,0,0,0,0,0],"sum_hessian":[4.04E2,3.37E2,6.7E1,2.03E2,1.34E2,4E1,2.7E1,2.7E1,1.76E2,7.6E1,5.8E1,3.8E1,2E0,2.6E1,1E0,2.5E1,2E0,1.49E2,2.7E1,8E0,6.8E1,5.7E1,1E0,5E0,2E1,1.43E2,6E0,2.4E1,3E0,7E0,1E0],"tree_param":{"num_deleted":"0","num_feature":"13","num_nodes":"31","size_leaf_vector":"1"}},{"base_weights":[1.8565143E-2,2.5279272E0,-3.6611497E0,8.888692E-1,2.0266106E0,-4.2548604E0,5.859553E0,-1.1416817E0,2.4716794E0,-6.779595E0,-3.6159248E0,6.437666E-1,-0E0,-1.2751389E0,-0E0,3.5050235E0,8.4700125E-1,-6.9512784E-1,-0E0,-0E0,-3.721448E0,-1.4259471E-1,-0E0,6.131968E-1,1.8285225E-1,-0E0,1.464537E-1,-5.599165E-3,-3.8514662E-1],"categories":[],"categories_nodes":[],"categories_segments":[],"categories_sizes":[],"default_left":[0,0,0,0,0,0,0,0,0,0,0,0,0,0,0,0,0,0,0,0,0,0,0,0,0,0,0,0,0],"id":5,"left_children":[1,3,5,-1,7,9,11,13,15,17,19,-1,-1,21,-1,23,25,-1,-1,-1,27,-1,-1,-1,-1,-1,-1,-1,-1],"loss_changes":[3.737586E3,6.477009E2,9.3024927E2,0E0,3.3762653E2,1.2156738E2,2.2539093E1,2.562027E-1,2.94318E2,1.5328491E1,7.2181274E1,0E0,0E0,6.520939E0,0E0,4.376715E2,5.770522E1,0E0,0E0,0E0,2.1234985E1,0E0,0E0,0E0,0E0,0E0,0E0,0E0,0E0],"parents":[2147483647,0,0,1,1,2,2,4,4,5,5,6,6,7,7,8,8,9,9,10,10,13,13,15,15,16,16,20,20],"right_children":[2,4,6,-1,8,10,12,14,16,18,20,-1,-1,22,-1,24,26,-1,-1,-1,28,-1,-1,-1,-1,-1,-1,-1,-1],"split_conditions":[1.97E1,1.47E1,1E0,8.888692E-1,3.6302E2,1.3142E2,3.9211E2,3.5304E2,1.79E1,2.09E1,2.1097E2,6.437666E-1,-0E0,1.85E1,-0E0,3.8996E2,3.9278E2,-6.9512784E-1,-0E0,-0E0,2.01E1,-1.4259471E-1,-0E0,6.131968E-1,1.8285225E-1,-0E0,1.464537E-1,-5.599165E-3,-3.8514662E-1],"split_indices":[10,10,3,0,11,11,11,11,10,10,11,0,0,10,0,11,11,0,0,0,10,0,0,0,0,0,0,0,0],"split_type":[0,0,0,0,0,0,0,0,0,0,0,0,0,0,0,0,0,0,0,0,0,0,0,0,0,0,0,0,0],"sum_hessian":[4.04E2,2.42E2,1.62E2,1.5E1,2.27E2,1.54E2,8E0,2.5E1,2.02E2,2.6E1,1.28E2,7E0,1E0,2E1,5E0,1.19E2,8.3E1,2.5E1,1E0,2E0,1.26E2,1.9E1,1E0,4.3E1,7.6E1,2.9E1,5.4E1,7E0,1.19E2],"tree_param":{"num_deleted":"0","num_feature":"13","num_nodes":"29","size_leaf_vector":"1"}},{"base_weights":[1.8434491E-2,2.3450968E0,-3.2182562E0,5.192687E0,8.0712265E-1,-3.7431042E0,5.3588456E-1,7.304277E-1,3.611276E0,1.9517378E0,-2.3561569E-1,-2.1135414E0,-4.415546E-1,4.9369454E0,8.129322E-2,5.364586E-1,5.670752E0,-1.415813E0,3.4775785E-1,-8.033806E-1,-3.1487864E-1,4.7242794E-2,6.07957E-1,-8.065747E-2,2.4309663E-1,-1.9309608E-2,1.2462707E-1,6.8030274E-1,1.1675227E-1,-0E0,-1.4616872E-1,1.10687785E-1,-0E0,-0E0,-9.172007E-2],"categories":[],"categories_nodes":[],"categories_segments":[],"categories_sizes":[],"default_left":[0,0,0,0,0,0,0,0,0,0,0,0,0,0,0,0,0,0,0,0,0,0,0,0,0,0,0,0,0,0,0,0,0,0,0],"id":6,"left_children":[1,3,5,7,9,11,-1,-1,13,15,17,19,-1,21,23,25,27,29,31,33,-1,-1,-1,-1,-1,-1,-1,-1,-1,-1,-1,-1,-1,-1,-1],"loss_changes":[3.0487437E3,9.781367E2,7.601825E2,1.3494897E2,2.0619943E2,1.0070239E2,0E0,0E0,1.8807544E2,3.559612E2,6.556408E1,2.9834534E1,0E0,1.1015216E2,5.367006E1,4.236104E1,1.4329712E1,2.0875626E0,1.6248306E1,3.996748E0,0E0,0E0,0E0,0E0,0E0,0E0,0E0,0E0,0E0,0E0,0E0,0E0,0E0,0E0,0E0],"parents":[2147483647,0,0,1,1,2,2,3,3,4,4,5,5,8,8,9,9,10,10,11,11,13,13,14,14,15,15,16,16,17,17,18,18,19,19],"right_children":[2,4,6,8,10,12,-1,-1,14,16,18,20,-1,22,24,26,28,30,32,34,-1,-1,-1,-1,-1,-1,-1,-1,-1,-1,-1,-1,-1,-1,-1],"split_conditions":[1.96E1,4.15E0,1E0,1.53E1,1.78E1,1.283E1,5.3588456E-1,7.304277E-1,3.24E0,1.7E1,1.85E1,2.1E1,-4.415546E-1,2.02E0,3.75E0,8.14E0,1E0,4.39E0,5.96E0,1.32E0,-3.1487864E-1,4.7242794E-2,6.07957E-1,-8.065747E-2,2.4309663E-1,-1.9309608E-2,1.2462707E-1,6.8030274E-1,1.1675227E-1,-0E0,-1.4616872E-1,1.10687785E-1,-0E0,-0E0,-9.172007E-2],"split_indices":[10,2,3,10,10,2,0,0,2,10,10,10,0,2,2,2,3,2,2,2,0,0,0,0,0,0,0,0,0,0,0,0,0,0,0],"split_type":[0,0,0,0,0,0,0,0,0,0,0,0,0,0,0,0,0,0,0,0,0,0,0,0,0,0,0,0,0,0,0,0,0,0,0],"sum_hessian":[4.04E2,2.37E2,1.67E2,8E1,1.57E2,1.59E2,8E0,3E1,5E1,7.9E1,7.8E1,5.2E1,1.07E2,3.4E1,1.6E1,6E1,1.9E1,3.1E1,4.7E1,2.8E1,2.4E1,9E0,2.5E1,9E0,7E0,2.3E1,3.7E1,1.3E1,6E0,1E0,3E1,1.7E1,3E1,2E0,2.6E1],"tree_param":{"num_deleted":"0","num_feature":"13","num_nodes":"35","size_leaf_vector":"1"}},{"base_weights":[2.6287183E-2,-9.317575E-1,2.8676698E0,-3.544323E0,7.976359E-4,5.074505E-1,3.2850075E-1,4.261682E0,-4.9545727E0,-1.0381662E0,5.592352E-1,-1.0521207E0,9.2036587E-1,-0E0,9.610025E-1,-5.107059E0,-0E0,-1.6064485E0,4.7844505E0,2.2814567E0,-7.7481997E-1,-0E0,-1.3639876E-1,1.1222723E0,-0E0,-1.5250841E-1,1.838079E-1,-5.349046E-1,-8.4016845E-2,-0E0,-1.3998223E-2,4.5390683E-1,-1.9198513E-1,6.2901306E-1,-0E0,1.7432291E-2,2.9913628E-1,-9.754964E-2,-0E0,2.930832E-2,1.9888745E-1],"categories":[],"categories_nodes":[],"categories_segments":[],"categories_sizes":[],"default_left":[0,0,0,0,0,0,0,0,0,0,0,0,0,0,0,0,0,0,0,0,0,0,0,0,0,0,0,0,0,0,0,0,0,0,0,0,0,0,0,0,0],"id":7,"left_children":[1,3,5,7,9,-1,11,13,15,17,19,21,23,25,-1,27,29,31,33,35,37,-1,-1,39,-1,-1,-1,-1,-1,-1,-1,-1,-1,-1,-1,-1,-1,-1,-1,-1,-1],"loss_changes":[1.1245105E3,7.6878284E2,5.3267346E2,9.30734E2,1.2343448E2,0E0,4.2142155E1,2.4381969E2,4.60437E0,2.1083716E2,3.6146487E2,8.4669495E-1,1.35432205E1,2.6196194E1,0E0,2.793213E0,5.878507E-2,1.1156566E2,4.3808136E1,7.103653E1,1.3576778E1,0E0,0E0,4.6220284E0,0E0,0E0,0E0,0E0,0E0,0E0,0E0,0E0,0E0,0E0,0E0,0E0,0E0,0E0,0E0,0E0,0E0],"parents":[2147483647,0,0,1,1,2,2,3,3,4,4,6,6,7,7,8,8,9,9,10,10,11,11,12,12,13,13,15,15,16,16,17,17,18,18,19,19,20,20,23,23],"right_children":[2,4,6,8,10,-1,12,14,16,18,20,22,24,26,-1,28,30,32,34,36,38,-1,-1,40,-1,-1,-1,-1,-1,-1,-1,-1,-1,-1,-1,-1,-1,-1,-1,-1,-1],"split_conditions":[1.75E1,1.9709E0,6.498E0,1.358E0,2.5979E0,5.074505E-1,7.0355E0,1E0,1.9512E0,1E0,3.6526E0,2.2E1,1.05857E1,1.2024E0,9.610025E-1,1E0,1.9669E0,1.9784E0,2.1675E0,2.829E0,5.9505E0,-0E0,-1.3639876E-1,8E1,-0E0,-1.5250841E-1,1.838079E-1,-5.349046E-1,-8.4016845E-2,-0E0,-1.3998223E-2,4.5390683E-1,-1.9198513E-1,6.2901306E-1,-0E0,1.7432291E-2,2.9913628E-1,-9.754964E-2,-0E0,2.930832E-2,1.9888745E-1],"split_indices":[1,7,7,7,7,0,7,3,7,3,7,1,7,7,0,3,7,7,7,7,7,0,0,1,0,0,0,0,0,0,0,0,0,0,0,0,0,0,0,0,0],"split_type":[0,0,0,0,0,0,0,0,0,0,0,0,0,0,0,0,0,0,0,0,0,0,0,0,0,0,0,0,0,0,0,0,0,0,0,0,0,0,0,0,0],"sum_hessian":[4.04E2,3E2,1.04E2,8.1E1,2.19E2,5.3E1,5.1E1,1.1E1,7E1,7E1,1.49E2,1E1,4.1E1,7E0,4E0,6.6E1,4E0,6.6E1,4E0,6.8E1,8.1E1,4E0,6E0,3.8E1,3E0,3E0,4E0,6E1,6E0,2E0,2E0,1E0,6.5E1,3E0,1E0,2.1E1,4.7E1,6.5E1,1.6E1,2.6E1,1.2E1],"tree_param":{"num_deleted":"0","num_feature":"13","num_nodes":"41","size_leaf_vector":"1"}},{"base_weights":[2.957799E-2,1.264496E0,-4.802248E0,3.639745E0,5.098817E-1,-6.7847914E-1,-3.237376E-1,-0E0,4.118124E0,2.2060128E-1,5.0197387E0,-3.981342E-3,-0E0,8.675526E-1,2.7013652E0,1.0142859E0,-2.3321013E0,1.0715155E1,1.8675868E-1,-0E0,5.8381844E-1,2.368315E-2,5.8355683E-1,-2.857306E-1,-8.945268E-2,-0E0,1.2909939E0,3.5416108E-1,-1.2054451E-1],"categories":[],"categories_nodes":[],"categories_segments":[],"categories_sizes":[],"default_left":[0,0,0,0,0,0,0,0,0,0,0,0,0,0,0,0,0,0,0,0,0,0,0,0,0,0,0,0,0],"id":8,"left_children":[1,3,5,7,9,-1,-1,11,13,15,17,-1,-1,-1,19,21,23,25,27,-1,-1,-1,-1,-1,-1,-1,-1,-1,-1],"loss_changes":[2.3872932E3,5.391768E2,1.2910986E2,1.5962756E2,2.7394717E2,0E0,0E0,7.925543E-3,3.0185364E2,4.7341098E2,2.4681552E2,0E0,0E0,0E0,4.1667E2,6.3508276E2,6.968689E-1,9.2593445E1,6.966661E1,0E0,0E0,0E0,0E0,0E0,0E0,0E0,0E0,0E0,0E0],"parents":[2147483647,0,0,1,1,2,2,3,3,4,4,7,7,8,8,9,9,10,10,14,14,15,15,16,16,17,17,18,18],"right_children":[2,4,6,8,10,-1,-1,12,14,16,18,-1,-1,-1,20,22,24,26,28,-1,-1,-1,-1,-1,-1,-1,-1,-1,-1],"split_conditions":[6.71E-1,2.7E2,7.13E-1,1.93E2,6.31E-1,-6.7847914E-1,-3.237376E-1,3.7825E2,2.22E2,4.11E2,6.47E-1,-3.981342E-3,-0E0,8.675526E-1,2.44E2,3.98E2,3.9274E2,1.7291E2,3.4813E2,-0E0,5.8381844E-1,2.368315E-2,5.8355683E-1,-2.857306E-1,-8.945268E-2,-0E0,1.2909939E0,3.5416108E-1,-1.2054451E-1],"split_indices":[4,9,4,9,4,0,0,11,9,9,4,0,0,0,9,9,11,11,11,0,0,0,0,0,0,0,0,0,0],"split_type":[0,0,0,0,0,0,0,0,0,0,0,0,0,0,0,0,0,0,0,0,0,0,0,0,0,0,0,0,0],"sum_hessian":[4.04E2,3.24E2,8E1,7.4E1,2.5E2,3.1E1,4.9E1,7E0,6.7E1,2.38E2,1.2E1,4E0,3E0,1.3E1,5.4E1,1.85E2,5.3E1,4E0,8E0,3.1E1,2.3E1,1.62E2,2.3E1,3.3E1,2E1,1E0,3E0,4E0,4E0],"tree_param":{"num_deleted":"0","num_feature":"13","num_nodes":"29","size_leaf_vector":"1"}},{"base_weights":[3.293127E-2,8.675513E-1,-4.9024253E0,-2.5876403E0,1.3051697E0,-5.0565004E0,-0E0,-2.9508898E-1,-0E0,2.6735525E0,4.5758575E-1,-0E0,-5.2762836E-1,4.844758E0,5.7809013E-1,1.9029212E0,-6.153191E-1,-1.3202949E-1,-0E0,-0E0,6.3734955E-1,-3.0901937E-2,1.6700658E-1,-0E0,2.0845187E-1,-2.4034102E-1,-1.5998974E-2],"categories":[],"categories_nodes":[],"categories_segments":[],"categories_sizes":[],"default_left":[0,0,0,0,0,0,0,0,0,0,0,0,0,0,0,0,0,0,0,0,0,0,0,0,0,0,0],"id":9,"left_children":[1,3,5,7,9,11,-1,-1,-1,13,15,17,-1,19,21,23,25,-1,-1,-1,-1,-1,-1,-1,-1,-1,-1],"loss_changes":[1.6321592E3,5.182598E2,3.6325684E1,1.3484863E1,3.3048865E2,1.3546631E1,0E0,0E0,0E0,4.6618414E2,3.226377E2,6.972714E0,0E0,4.3862952E2,7.4186066E1,5.1410065E1,6.435439E1,0E0,0E0,0E0,0E0,0E0,0E0,0E0,0E0,0E0,0E0],"parents":[2147483647,0,0,1,1,2,2,3,3,4,4,5,5,9,9,10,10,11,11,13,13,14,14,15,15,16,16],"right_children":[2,4,6,8,10,12,-1,-1,-1,14,16,18,-1,20,22,24,26,-1,-1,-1,-1,-1,-1,-1,-1,-1,-1],"split_conditions":[8.49213E0,3.4491E2,2.2565E0,3.2946E2,3.905E2,1.3325E0,-0E0,-2.9508898E-1,-0E0,3.6526E0,1.0084E-1,1.2024E0,-5.2762836E-1,2.9819E-1,3.8284E2,2.5091E0,1.9879E0,-1.3202949E-1,-0E0,-0E0,6.3734955E-1,-3.0901937E-2,1.6700658E-1,-0E0,2.0845187E-1,-2.4034102E-1,-1.5998974E-2],"split_indices":[0,11,7,11,11,7,0,0,0,7,0,7,0,0,11,7,7,0,0,0,0,0,0,0,0,0,0],"split_type":[0,0,0,0,0,0,0,0,0,0,0,0,0,0,0,0,0,0,0,0,0,0,0,0,0,0,0],"sum_hessian":[4.04E2,3.48E2,5.6E1,3.6E1,3.12E2,5.4E1,2E0,2.9E1,7E0,1.14E2,1.98E2,4E0,5E1,5.3E1,6.1E1,8.8E1,1.1E2,3E0,1E0,1.2E1,4.1E1,2.9E1,3.2E1,3E0,8.5E1,1.7E1,9.3E1],"tree_param":{"num_deleted":"0","num_feature":"13","num_nodes":"27","size_leaf_vector":"1"}}]},"name":"gbtree"},"learner_model_param":{"base_score":"2.2796535E1","boost_from_average":"1","num_class":"0","num_feature":"13","num_target":"1"},"objective":{"name":"reg:squarederror","reg_loss_param":{"scale_pos_weight":"1"}}},"version":[2,1,1]}